{
  "input_nodes": 5,
  "hidden_nodes": 8,
  "output_nodes": 2,
  "weights_ih": {
    "rows": 8,
    "cols": 5,
    "data": [
      [
        0.24290897632779115,
        0.6023070696779698,
        0.8698764568425079,
        -0.3486255902465888,
        -0.7694571711070477
      ],
      [
        0.6771506186912837,
        0.10262145878120203,
        -0.40609158729919176,
        -0.10204251214525505,
        0.7378899926042739
      ],
      [
        0.6082253887501916,
        -0.91503590887837,
        -0.7083501483203501,
        -0.1339766296885303,
        -0.7430894060941763
      ],
      [
        -0.6517180437957979,
        0.7141633466116087,
        -0.5010564596200849,
        0.30434069487487175,
        -0.984707898146473
      ],
      [
        0.8543241844367803,
        -0.8139776029452613,
        -0.9869978949008602,
        -0.8753440728078506,
        -0.12194788396936065
      ],
      [
        0.5982301784479579,
        -0.6587227493887894,
        -0.008605507736079786,
        0.1121141870866045,
        0.6029570894351282
      ],
      [
        -0.8164425250983025,
        -0.2293025475738666,
        -0.7608258775607457,
        -0.886599067641398,
        -0.34877052276698217
      ],
      [
        0.39396545638869895,
        0.16183922070101825,
        0.4297723325184504,
        -0.42723431221599384,
        0.6457629684336197
      ]
    ]
  },
  "weights_ho": {
    "rows": 2,
    "cols": 8,
    "data": [
      [
        -0.41337062779534683,
        -0.7917387808260599,
        -0.04730238692931621,
        -0.4256583595152757,
        0.44294314425441506,
        0.9293909479191351,
        -0.6299382870108804,
        0.6359878215646964
      ],
      [
        -0.5994462616172016,
        -0.017665503010428463,
        0.525683907201937,
        0.5890122589646567,
        -0.2098599953361422,
        0.6149644652341639,
        0.13967857100966768,
        -0.4405471126570465
      ]
    ]
  },
  "bias_h": {
    "rows": 8,
    "cols": 1,
    "data": [
      [
        -0.7596029862303806
      ],
      [
        0.35696472530792844
      ],
      [
        -0.9445775206158888
      ],
      [
        -0.16313201029253577
      ],
      [
        0.20283617244415245
      ],
      [
        -1.0249090654421396
      ],
      [
        0.250188538053139
      ],
      [
        -0.6736893501421239
      ]
    ]
  },
  "bias_o": {
    "rows": 2,
    "cols": 1,
    "data": [
      [
        0.18099374024468118
      ],
      [
        -0.019990227034143437
      ]
    ]
  },
  "learning_rate": 0.1,
  "activation_function": {}
}
